//Numpy array shape [32, 32]
//Min -1.000000000000
//Max 0.999948143959
//Number of zeros 0

#ifndef W20_H_
#define W20_H_

#ifndef __SYNTHESIS__
phi2_weight_t w20[1024];
#else
phi2_weight_t w20[1024] = {0.976562, 0.992188, 0.570312, -0.992188, -0.390625, -0.492188, -1.000000, -1.000000, -0.992188, 0.101562, -1.000000, -0.929688, 0.984375, -0.492188, -1.000000, -1.000000, -0.515625, -0.062500, -0.062500, -0.570312, 0.046875, -0.289062, 0.992188, -0.992188, -0.992188, 0.031250, -0.523438, -0.984375, -0.992188, -0.734375, 0.734375, 0.164062, -0.632812, -0.335938, -0.039062, -0.640625, -0.031250, -0.921875, -0.414062, 0.500000, 0.304688, 0.289062, 0.531250, 0.296875, -0.078125, 0.867188, 0.375000, 0.562500, 0.671875, -0.054688, -0.296875, 0.289062, -0.500000, 0.421875, -0.531250, 0.070312, -0.367188, -0.921875, -0.250000, -0.546875, -0.109375, -0.671875, -0.773438, -0.351562, -0.742188, 0.000000, 0.578125, 0.156250, -0.398438, 0.453125, 0.726562, 0.328125, -0.257812, 0.468750, -0.140625, 0.750000, -0.226562, 0.382812, 0.656250, -0.992188, 0.226562, -0.156250, -0.742188, 0.859375, -0.187500, 0.687500, -0.117188, -0.507812, 0.515625, 0.312500, 0.125000, 0.023438, 0.578125, -0.296875, -0.257812, -0.367188, 0.234375, 0.656250, -0.218750, -0.976562, -0.406250, 0.554688, -0.429688, 0.992188, -0.445312, 0.398438, -0.984375, 0.648438, -0.320312, 0.000000, -0.492188, 0.531250, 0.007812, -0.031250, -1.000000, 0.070312, 0.390625, 0.117188, -0.640625, -0.687500, -0.421875, -0.296875, -1.000000, 0.101562, -0.023438, 0.820312, 0.710938, 0.179688, -0.546875, 0.484375, 0.234375, -0.109375, -0.273438, -0.140625, -1.000000, -0.875000, -1.000000, -0.515625, -0.890625, -0.468750, 0.679688, -0.250000, -0.171875, 0.335938, 0.671875, 0.296875, 0.335938, -0.054688, -0.531250, -0.203125, 0.921875, -0.328125, 0.328125, 0.226562, -0.296875, -0.390625, 0.234375, -0.648438, -0.921875, -0.390625, 0.414062, -0.914062, -0.328125, -0.320312, 0.343750, 0.492188, -0.804688, 0.992188, 0.218750, 0.187500, -1.000000, -0.992188, -0.726562, -0.101562, -0.875000, -0.484375, 0.718750, 0.171875, -0.062500, 0.070312, 0.304688, -0.609375, 0.914062, -1.000000, -0.484375, -0.820312, 0.960938, -0.585938, 0.226562, 0.601562, -1.000000, -0.507812, -1.000000, 0.687500, -0.054688, -0.609375, -0.187500, 0.492188, 0.445312, 0.015625, 0.257812, 0.718750, 0.406250, 0.031250, -0.984375, -0.148438, -0.328125, 0.117188, -0.929688, -0.507812, 0.476562, -0.375000, 0.304688, 0.242188, -0.617188, 0.289062, -0.148438, 0.421875, -0.531250, 0.453125, 0.132812, -0.070312, -0.992188, -0.226562, 0.992188, 0.992188, 0.867188, -0.992188, -0.476562, -0.968750, -0.046875, -0.882812, -0.210938, -0.593750, -0.992188, -0.992188, 0.992188, -0.390625, 0.367188, 0.117188, 0.992188, -0.148438, -0.226562, -0.992188, -1.000000, -0.804688, 0.992188, -1.000000, -0.968750, -0.296875, -0.945312, -0.273438, -0.992188, -0.992188, -0.992188, -0.164062, 0.765625, -0.382812, 0.539062, 0.085938, 0.007812, 0.257812, -0.984375, -0.093750, 0.390625, -0.117188, 0.398438, -0.312500, 0.781250, -0.976562, -0.843750, -0.343750, 0.984375, -0.039062, 0.000000, -0.515625, -0.585938, 0.171875, 0.546875, -0.109375, -0.914062, -0.703125, -1.000000, 0.984375, 0.859375, -0.507812, -0.992188, 0.046875, -0.359375, 0.398438, 0.562500, -0.484375, -0.156250, -0.148438, 0.992188, 0.039062, -0.695312, -0.765625, -0.460938, 0.195312, 0.625000, 0.812500, 0.609375, -1.000000, -0.296875, 0.375000, -1.000000, -0.054688, -0.070312, -0.726562, -0.117188, -0.539062, -0.031250, 0.054688, 0.343750, -0.609375, -0.343750, 0.687500, -0.164062, -0.437500, -0.992188, 0.140625, -0.031250, 0.992188, -0.507812, 0.250000, 0.257812, 0.453125, 0.250000, -0.265625, 0.765625, -0.125000, -0.984375, 0.007812, -0.054688, 0.484375, -0.992188, -0.289062, 0.101562, 0.406250, 0.109375, 0.296875, 0.242188, 0.414062, -0.398438, 0.164062, 0.179688, 0.351562, 0.070312, 0.648438, -0.851562, 0.078125, 0.023438, -0.773438, -0.437500, 0.328125, -0.195312, 0.546875, -0.921875, 0.101562, -1.000000, -0.539062, 0.367188, -0.812500, 0.265625, 0.992188, -0.898438, 0.992188, -1.000000, -0.312500, -0.484375, 0.984375, 0.195312, -0.843750, 0.796875, 0.992188, -0.992188, -0.851562, 0.093750, -1.000000, 0.984375, 0.000000, -0.695312, 0.093750, -0.664062, -0.031250, 0.007812, 0.156250, -0.046875, 0.640625, 0.539062, 0.328125, 0.171875, 0.203125, 0.445312, 0.257812, 0.031250, 0.023438, 0.765625, 0.375000, -0.664062, 0.195312, 0.992188, 0.210938, -0.531250, 0.593750, 0.148438, -0.203125, 0.992188, 0.109375, 0.429688, -0.585938, 0.484375, 0.820312, -0.953125, -0.031250, 0.023438, 0.632812, 0.539062, -0.117188, 0.296875, -0.148438, -1.000000, -0.632812, -0.992188, -0.125000, 0.242188, -0.468750, -0.304688, -0.085938, -0.921875, -0.742188, 0.929688, 0.125000, 0.023438, -0.187500, 0.476562, -0.132812, 0.570312, -0.757812, -1.000000, -0.671875, 0.984375, -0.992188, -0.968750, -0.085938, -0.265625, -0.265625, -0.992188, 0.304688, 0.335938, -0.375000, -0.062500, -0.343750, -0.320312, 0.320312, -0.726562, -0.992188, 0.148438, -0.367188, 0.398438, 0.882812, 0.664062, -0.992188, 0.296875, -0.085938, 0.164062, 0.125000, 0.960938, 0.304688, -0.343750, -0.062500, -0.320312, -1.000000, -0.210938, -0.195312, 0.187500, -0.046875, -0.093750, -0.015625, -1.000000, -0.273438, 0.218750, -0.960938, 0.164062, 0.687500, -0.125000, 0.257812, -0.070312, -0.492188, -0.632812, 0.429688, 0.398438, -0.109375, 0.992188, -0.335938, -0.250000, -0.351562, -1.000000, -0.320312, 0.117188, -0.546875, -0.382812, -0.218750, 0.031250, 0.382812, -0.164062, 0.992188, 0.390625, 0.070312, 0.234375, -0.531250, 0.414062, -0.078125, 0.500000, -0.546875, 0.171875, 0.382812, -0.328125, -0.359375, 0.015625, 0.734375, 0.046875, 0.539062, -0.046875, 0.039062, 0.601562, -0.992188, -0.585938, -0.140625, -0.953125, 0.875000, 0.804688, 0.046875, -0.125000, -0.140625, 0.242188, 0.492188, 0.031250, -0.796875, 0.210938, -0.031250, 0.304688, 0.039062, 0.742188, 0.335938, 0.312500, -0.992188, -0.046875, -0.117188, -1.000000, -0.218750, -0.718750, 0.718750, -0.976562, -0.937500, 0.453125, -0.875000, -1.000000, 0.101562, -0.617188, 0.421875, 0.226562, 0.585938, -0.140625, 0.148438, 0.992188, -0.984375, -0.656250, -0.320312, 0.609375, 0.375000, -0.375000, -0.187500, -0.484375, 0.226562, 0.343750, 0.781250, 0.296875, 0.992188, -0.265625, -0.992188, -0.875000, -0.992188, -0.234375, 0.265625, -0.289062, -0.898438, 0.648438, -0.726562, -0.671875, 0.210938, 0.148438, -0.382812, -0.101562, -0.242188, -0.148438, 0.109375, 0.976562, -1.000000, 0.945312, -0.101562, -0.382812, -0.312500, -0.335938, 0.296875, -0.921875, -0.179688, 0.992188, 0.507812, 0.234375, -0.648438, -0.164062, -0.992188, 0.492188, 0.125000, -0.367188, -0.304688, -0.039062, 0.312500, -0.500000, -0.210938, 0.562500, -1.000000, -0.078125, -0.398438, -0.992188, 0.578125, -0.039062, 0.039062, -0.281250, -0.773438, -0.257812, 0.570312, 0.632812, -0.289062, 0.539062, 0.484375, -0.781250, 0.250000, 0.625000, 0.539062, 0.078125, -0.500000, -0.093750, 0.046875, -0.937500, 0.078125, -0.992188, -0.718750, 0.468750, -0.484375, 0.398438, -0.078125, -0.664062, -0.937500, 0.992188, -0.468750, 0.109375, 0.390625, -0.078125, -0.507812, 0.632812, -0.125000, -0.335938, -0.218750, 0.187500, 0.007812, -0.171875, 0.218750, -0.718750, -0.195312, -0.460938, 0.320312, 0.164062, -0.500000, -0.421875, 0.164062, 0.742188, 0.601562, -0.351562, 0.328125, -0.992188, -0.101562, -0.992188, -0.242188, 0.625000, -0.304688, -0.515625, -0.234375, -0.593750, -0.031250, -0.070312, 0.257812, 0.023438, -0.828125, -0.640625, -0.039062, -0.476562, 0.546875, 0.421875, 0.507812, -0.656250, 0.062500, -0.054688, 0.406250, 0.390625, -0.062500, -0.187500, 0.765625, 0.414062, -0.523438, 0.593750, -0.710938, -0.695312, 0.593750, -0.937500, -1.000000, 0.242188, 0.046875, 0.312500, -0.320312, -0.132812, -0.617188, 0.921875, 0.156250, -0.195312, -0.507812, 0.125000, 0.992188, -0.023438, 0.726562, 0.273438, 0.046875, 0.664062, -0.007812, -0.835938, 0.101562, 0.218750, -0.882812, -0.507812, 0.437500, 0.429688, 0.093750, -0.765625, -0.070312, 0.226562, -0.070312, 0.304688, 0.031250, 0.859375, -0.976562, -0.093750, 0.070312, -0.632812, -0.070312, 0.078125, 0.523438, 0.046875, -0.546875, -0.664062, -0.070312, 0.289062, -0.406250, 0.210938, 0.890625, -1.000000, -0.226562, -0.070312, -0.132812, 0.460938, 0.242188, -0.164062, -0.343750, 0.460938, 0.773438, -1.000000, -0.015625, -0.570312, 0.226562, -0.179688, -0.703125, 0.859375, -1.000000, -0.843750, -0.359375, -1.000000, 0.359375, 0.304688, 0.414062, -0.476562, -0.562500, -0.468750, 0.046875, 0.765625, 0.304688, -0.148438, 0.765625, -0.796875, -0.257812, -0.312500, 0.148438, 0.460938, 0.765625, -0.406250, 0.609375, 0.554688, 0.156250, -0.125000, 0.195312, -0.054688, 0.359375, -0.210938, 0.359375, 0.492188, -1.000000, 0.320312, -0.585938, -0.960938, 0.828125, 0.054688, 0.273438, -0.101562, -0.234375, -1.000000, -0.054688, 0.078125, -0.984375, 0.210938, -0.476562, -0.976562, -0.125000, 0.046875, -0.234375, 0.500000, 0.093750, -0.421875, 0.226562, 0.156250, 0.335938, -0.906250, -0.265625, 0.664062, 0.421875, 0.117188, -0.031250, 0.984375, -1.000000, -0.664062, -0.078125, -0.976562, 0.046875, -0.398438, 0.757812, 0.085938, -0.867188, 0.765625, -0.437500, 0.906250, -0.460938, 0.359375, 0.992188, 0.734375, -0.164062, -0.351562, -0.289062, -0.023438, 0.351562, -0.195312, -0.531250, 0.562500, 0.992188, -0.390625, -0.164062, 0.601562, 0.093750, -0.843750, -0.164062, 0.203125, 0.125000, -0.976562, -0.539062, -0.117188, -0.031250, -0.859375, -0.117188, -0.312500, 0.109375, -0.531250, -0.593750, 0.664062, -0.023438, 0.429688, 0.992188, 0.281250, -0.125000, -0.953125, -0.406250, -0.453125, 0.523438, -0.046875, -0.132812, 0.312500, -0.062500, 0.484375, -0.531250, -0.031250, 0.453125, 0.117188, 0.460938, 0.078125, 0.406250, 0.210938, 0.140625, -0.101562, 0.210938, 0.070312, 0.296875, -0.992188, 0.406250, -0.609375, -0.343750, 0.859375, 0.109375, 0.453125, -0.265625, -0.812500, 0.171875, -0.023438, 0.765625, 0.648438, 0.789062, 0.070312, 0.648438, 0.445312, -0.250000, -0.179688, 0.632812, -0.078125, 0.828125, -0.367188, 0.484375, 0.828125, -0.992188, 0.445312, -0.296875, -0.992188, 0.976562, 0.531250, 0.359375, -0.117188, -0.648438, 0.617188, 0.304688, -0.070312, -0.984375, 0.523438, 0.226562, 0.335938, -0.375000, 0.359375, 0.976562, 0.382812, 0.257812, -0.140625, -0.640625, -1.000000, -0.703125, -0.992188, -0.187500, -0.945312, -0.789062, 0.671875, -0.617188, -0.906250, -0.335938, 0.273438, -0.109375, -0.382812, 0.164062, 0.328125, 0.671875, 0.992188, -0.007812, -0.257812, 0.023438, -0.273438, -0.984375, -0.890625, -0.750000, 0.742188, -0.257812, -0.812500, -0.484375, -0.265625, -0.046875, -0.546875, 0.210938, 0.218750, -0.265625, 0.203125, 0.640625, 0.515625, 0.765625, -0.890625, -0.007812, 0.062500, 0.046875, -1.000000, 0.203125, 0.367188, 0.031250, 0.335938, -0.648438, -0.992188, 0.554688, 0.812500, 0.445312, -0.515625, 0.421875, 0.531250, 0.539062, -0.804688, 0.039062};
#endif

#endif
