//Numpy array shape [32, 32]
//Min -1.000000000000
//Max 0.992187500000
//Number of zeros 514

#ifndef W13_H_
#define W13_H_

#ifndef __SYNTHESIS__
weight13_t w13[1024];
#else
weight13_t w13[1024] = {0.000000, 0.984375, 0.000000, -0.968750, 0.000000, 0.992188, -1.000000, 0.000000, 0.937500, 0.992188, -1.000000, 0.000000, 0.000000, 0.000000, 0.000000, 0.000000, -1.000000, -0.992188, -0.968750, 0.992188, -0.992188, 0.984375, 0.250000, 0.000000, 0.632812, 0.000000, -1.000000, 0.953125, 0.000000, 0.000000, 0.000000, 0.000000, 0.992188, 0.070312, 0.000000, -0.953125, 0.000000, 0.929688, -0.914062, 0.656250, 0.000000, 0.000000, 0.929688, 0.000000, 0.992188, 0.960938, -1.000000, 0.000000, 0.992188, 0.000000, 0.992188, -0.070312, -0.992188, 0.976562, 0.960938, -0.625000, 0.992188, 0.000000, 0.031250, 0.992188, -0.398438, 0.000000, 0.000000, 0.492188, 0.000000, 0.000000, -0.531250, 0.000000, -1.000000, -0.898438, -0.992188, 0.000000, 0.000000, 0.000000, 0.617188, 0.000000, 0.531250, 0.000000, 0.000000, 0.000000, 0.820312, 0.460938, 0.718750, 0.000000, 0.000000, 0.000000, 0.000000, 0.000000, 0.601562, 0.000000, 0.000000, 0.468750, 0.000000, 0.000000, 0.000000, 0.000000, 0.992188, -0.406250, 0.000000, 0.000000, 0.000000, -1.000000, -1.000000, 0.000000, -0.976562, 0.000000, 0.992188, 0.000000, 0.976562, 0.976562, -1.000000, 0.000000, 0.992188, 0.507812, 0.992188, -0.289062, -0.984375, 0.000000, 0.976562, 0.000000, 0.750000, 0.632812, 0.000000, 0.992188, 0.000000, 0.000000, -0.429688, 0.000000, 0.984375, 0.992188, 0.000000, -0.859375, 0.000000, -0.843750, -1.000000, 0.000000, 0.000000, 0.078125, 0.000000, 0.000000, 0.992188, 0.000000, -0.976562, -0.539062, 0.789062, 0.992188, 0.609375, -0.914062, -0.906250, 0.445312, 0.000000, 0.000000, 0.945312, 0.960938, 0.984375, 0.218750, 0.000000, 0.000000, 0.000000, 0.640625, 0.585938, 0.375000, 0.000000, -1.000000, 0.000000, -0.992188, -1.000000, 0.843750, 0.414062, 0.000000, -0.273438, 0.000000, 0.992188, -0.195312, -0.992188, 0.000000, 0.992188, 0.000000, 0.992188, 0.000000, -0.992188, 0.000000, 0.992188, -0.390625, 0.992188, 0.000000, 0.000000, 0.992188, 0.000000, 0.000000, 0.000000, 0.148438, 0.890625, 0.234375, 0.000000, 0.000000, -0.820312, 0.960938, 0.992188, 0.617188, 0.000000, 0.625000, 0.000000, 0.000000, 0.000000, 0.000000, 0.000000, 0.000000, -0.976562, 0.000000, 0.000000, 0.703125, -0.632812, -0.398438, 0.000000, 0.000000, 0.000000, 0.000000, 0.000000, 0.414062, 0.000000, 0.000000, -0.515625, 0.000000, 0.000000, 0.000000, 0.000000, 0.000000, 0.000000, -0.500000, 0.507812, 0.000000, 0.000000, 0.000000, 0.000000, 0.000000, 0.460938, 0.000000, 0.000000, 0.000000, 0.000000, 0.000000, 0.000000, 0.000000, 0.000000, 0.000000, 0.000000, 0.000000, 0.000000, 0.000000, 0.000000, 0.414062, 0.000000, 0.000000, 0.000000, 0.000000, 0.968750, 0.000000, 0.000000, -0.117188, 0.921875, -1.000000, -0.992188, 0.687500, 0.000000, 0.000000, 0.867188, 0.000000, 0.984375, -0.031250, -0.773438, 0.000000, 0.992188, 0.000000, 0.992188, -0.164062, -0.195312, 0.679688, 0.992188, 0.000000, 0.992188, 0.812500, 0.992188, 0.960938, 0.000000, 0.000000, 0.000000, 0.734375, 0.000000, 0.000000, 0.000000, 0.000000, 0.000000, 0.000000, 0.976562, 0.000000, 0.000000, 0.000000, 0.000000, 0.000000, -0.710938, 0.000000, 0.000000, 0.000000, 0.000000, 0.000000, -0.179688, -0.984375, 0.000000, 0.000000, 0.000000, 0.000000, -0.640625, 0.000000, 0.000000, -0.609375, 0.000000, 0.000000, -0.562500, -0.992188, 0.000000, 0.992188, 0.000000, -0.992188, 0.000000, 0.992188, -1.000000, 0.992188, 0.992188, 0.992188, -1.000000, 0.000000, 0.000000, 0.000000, 0.000000, -0.414062, -1.000000, -1.000000, -0.984375, 0.992188, -0.992188, 0.992188, 0.898438, 0.000000, 0.000000, 0.000000, -1.000000, 0.523438, 0.000000, 0.437500, 0.000000, 0.992188, 0.992188, -0.195312, 0.000000, -0.312500, -0.984375, 0.953125, 0.000000, -0.976562, -0.531250, -0.968750, 0.781250, 0.000000, 0.593750, 0.000000, 0.375000, 0.000000, 0.992188, 0.828125, 0.992188, 0.062500, -0.476562, -0.187500, 0.992188, 0.000000, 0.851562, -0.414062, 0.781250, 0.992188, 0.000000, 0.000000, 0.000000, 0.359375, 0.992188, 0.375000, 0.000000, -0.992188, -0.062500, 0.992188, -1.000000, 0.000000, 0.101562, 0.000000, -1.000000, 0.000000, 0.992188, -0.937500, -0.226562, 0.000000, 0.992188, 0.984375, 0.992188, 0.992188, -0.992188, 0.265625, 0.968750, 0.000000, 0.976562, 0.000000, 0.976562, 0.992188, 0.000000, 0.000000, 0.000000, 0.000000, 0.765625, 0.000000, 0.000000, 0.625000, 0.328125, 0.164062, 0.898438, -0.093750, 0.359375, 0.000000, -0.085938, 0.460938, 0.000000, 0.000000, 0.000000, 0.000000, 0.000000, 0.000000, -0.703125, 0.000000, 0.703125, 0.492188, 0.000000, 0.000000, 0.070312, 0.000000, 0.000000, -0.460938, 0.000000, -0.398438, 0.000000, 0.992188, 0.000000, -0.304688, 0.000000, 0.000000, -0.242188, 0.960938, 0.984375, 0.984375, -0.562500, 0.000000, 0.000000, 0.000000, -0.609375, 0.000000, 0.000000, 0.000000, 0.000000, 0.000000, 0.000000, 0.000000, 0.375000, 0.000000, 0.000000, 0.000000, -0.851562, 0.000000, 0.000000, -0.789062, -0.507812, 0.000000, 0.000000, 0.992188, 0.000000, 0.000000, -0.414062, 0.171875, 0.000000, 0.867188, 0.984375, 0.000000, 0.000000, -0.304688, 0.000000, -0.437500, 0.000000, 0.976562, 0.359375, 0.000000, -0.750000, 0.000000, 0.000000, 0.992188, 0.000000, -0.726562, 0.000000, -0.578125, 0.000000, 0.000000, 0.000000, 0.000000, 0.000000, 0.000000, 0.000000, 0.992188, 0.593750, 0.000000, 0.000000, 0.000000, 0.000000, -1.000000, -0.992188, 0.000000, -0.921875, 0.000000, 0.492188, 0.000000, 0.976562, 0.953125, -0.921875, 0.000000, 0.992188, 0.000000, 0.992188, 0.000000, -0.968750, 0.992188, 0.000000, 0.000000, 0.882812, 0.984375, 0.000000, 0.984375, -0.492188, 0.000000, 0.000000, -0.453125, 0.000000, 0.000000, 0.000000, 0.000000, 0.000000, 0.593750, 0.992188, 0.367188, -0.531250, 0.000000, 0.835938, 0.000000, 0.000000, 0.820312, 0.000000, 0.000000, -0.539062, 0.000000, 0.992188, 0.000000, 0.000000, -0.039062, 0.000000, -0.445312, 0.695312, 0.992188, 0.992188, 0.992188, 0.000000, 0.000000, 0.000000, -0.406250, 0.000000, 0.000000, 0.000000, 0.000000, 0.000000, 0.992188, 0.000000, 0.000000, 0.984375, 0.484375, -1.000000, 0.000000, -0.148438, 0.000000, 0.000000, 0.000000, -1.000000, 0.000000, -0.984375, -0.421875, 0.000000, 0.000000, 0.000000, 0.000000, 0.000000, 0.000000, 0.000000, 0.000000, 0.000000, 0.000000, 0.000000, 0.000000, 0.960938, 0.664062, 0.000000, -0.992188, 0.976562, -1.000000, -1.000000, 0.992188, 0.000000, 0.000000, -0.203125, 0.000000, 0.992188, -0.359375, -1.000000, 0.000000, 0.992188, 0.804688, 0.992188, -0.640625, -0.984375, 0.273438, 0.992188, 0.000000, 0.765625, 0.992188, 0.984375, 0.976562, 0.000000, 0.000000, 0.000000, 0.968750, -0.765625, 0.484375, 0.000000, -0.984375, -0.039062, 0.000000, -0.984375, 0.000000, 0.992188, 0.992188, -0.992188, 0.000000, 0.992188, -0.875000, -0.992188, 0.000000, 0.984375, 0.000000, 0.992188, 0.000000, -0.992188, 0.000000, 0.992188, 0.000000, 0.531250, 0.000000, -0.710938, 0.984375, -0.492188, 0.000000, -0.421875, 0.984375, -0.242188, 0.343750, 0.000000, -0.992188, 0.984375, -1.000000, -1.000000, 0.984375, 0.000000, 0.992188, -1.000000, 0.000000, 0.992188, 0.000000, -1.000000, -0.382812, 0.984375, 0.960938, 0.585938, -0.507812, -1.000000, 0.984375, 0.000000, -0.460938, 0.953125, 0.992188, 0.984375, 0.937500, 0.000000, 0.000000, 0.000000, 0.968750, -0.101562, 0.000000, 0.000000, -0.992188, 0.000000, -0.945312, -1.000000, 0.000000, 0.000000, 0.000000, 0.789062, 0.000000, 0.117188, 0.867188, -0.968750, 0.000000, 0.890625, 0.992188, 0.992188, 0.000000, 0.000000, 0.000000, 0.992188, 0.000000, 0.062500, 0.000000, 0.000000, 0.976562, 0.000000, -0.476562, 0.000000, -0.984375, 0.000000, 0.992188, 0.000000, -0.882812, 0.000000, 0.000000, -1.000000, 0.968750, 0.984375, 0.984375, -0.992188, 0.000000, 0.992188, 0.000000, 0.000000, 0.000000, -0.945312, 0.000000, 0.054688, 0.000000, -0.992188, 0.992188, 0.000000, 0.000000, 0.000000, 0.992188, -0.343750, 0.796875, 0.000000, 0.000000, 0.000000, 0.898438, 0.000000, -0.335938, 0.000000, 0.000000, 0.000000, -1.000000, -0.992188, -0.046875, 0.000000, 0.000000, 0.054688, 0.000000, 0.000000, 0.000000, 0.000000, 0.000000, 0.992188, 0.000000, 0.859375, 0.421875, 0.000000, 0.000000, 0.992188, -0.554688, -0.070312, 0.984375, 0.937500, 0.703125, -0.445312, 0.000000, 0.000000, 0.554688, -0.335938, 0.000000, 0.000000, 0.203125, 0.000000, 0.000000, 0.000000, 0.992188, 0.000000, 0.000000, -0.312500, 0.000000, -0.140625, -0.945312, 0.000000, 0.000000, 0.000000, 0.000000, -0.429688, 0.000000, 0.000000, 0.000000, -0.554688, -0.437500, -0.367188, 0.992188, 0.000000, -0.960938, 0.000000, -0.539062, 0.000000, 0.992188, 0.992188, 0.000000, 0.000000, -1.000000, 0.000000, 0.976562, 0.992188, 0.968750, -0.984375, 0.000000, 0.992188, 0.000000, 0.992188, -1.000000, 0.992188, 0.000000, 0.992188, 0.992188, 0.992188, 0.000000, -0.273438, 0.000000, 0.968750, 0.000000, 0.992188, 0.000000, 0.992188, 0.992188, 0.000000, 0.000000, 0.000000, 0.000000, 0.000000, 0.992188, -0.429688, 0.000000, 0.000000, 0.000000, 0.000000, 0.000000, 0.992188, 0.992188, -1.000000, 0.000000, 0.000000, -1.000000, 0.000000, 0.000000, -1.000000, 0.000000, -0.992188, 0.992188, 0.000000, 0.000000, 0.000000, -0.609375, 0.000000, 0.000000, -0.992188, 0.000000, -0.445312, 0.000000, 0.398438, 0.960938, 0.992188, -0.234375, 0.000000, -0.437500, 0.164062, 0.890625, 0.000000, -0.976562, -0.328125, 0.000000, 0.992188, 0.000000, 0.992188, 0.929688, 0.460938, 0.000000, 0.992188, 0.968750, 0.992188, 0.000000, 0.000000, 0.000000, 0.992188, 0.000000, 0.992188, -0.195312, 0.976562, 0.992188, 0.000000, 0.000000, 0.000000, -0.968750, -0.281250, 0.000000, -0.406250, -0.453125, -0.164062, -0.984375, -1.000000, 0.992188, 0.000000, 0.000000, 0.000000, 0.000000, 0.000000, 0.000000, 0.000000, 0.000000, 0.406250, 0.000000, 0.000000, 0.148438, -0.554688, 0.000000, -0.718750, 0.000000, 0.000000, 0.601562, 0.000000, 0.000000, 0.000000, -0.437500, 0.390625, 0.992188, 0.000000, 0.000000, 0.000000, 0.000000, 0.000000, 0.992188, 0.000000, 0.750000, 0.992188, 0.914062, -0.992188, 0.000000, 0.000000, 0.000000, 0.000000, 0.000000, -0.984375, -0.742188, -0.984375, 0.609375, 0.000000, 0.000000, 0.000000, 0.000000, 0.085938, 0.000000, -0.992188, 0.296875, 0.000000, 0.000000, 0.000000, 0.000000, 0.000000, 0.390625, 0.000000, 0.000000, 0.000000, 0.000000, 0.000000, 0.000000, 0.000000, 0.000000, 0.000000, 0.000000, 0.000000, 0.000000, 0.000000, 0.000000, 0.000000, 0.000000, 0.000000, 0.000000, 0.000000, 0.000000, 0.000000, -0.507812, 0.000000, 0.000000, 0.000000, 0.000000, 0.000000, 0.000000, 0.000000, 0.000000};
#endif

#endif
