//Numpy array shape [32, 5]
//Min -26.299293518066
//Max 21.936918258667
//Number of zeros 80

#ifndef W16_H_
#define W16_H_

#ifndef __SYNTHESIS__
dense_weight_t w16[160];
#else
dense_weight_t w16[160] = {  0.000000,  -2.644858,  -0.000000,   0.563975,  -0.000000,  10.448332,  -4.260240,  -0.000000,   0.000000,  -6.134934,   0.000000,   0.000000,  -0.000000,   0.000000,  -0.000000,   2.453775,   0.000000,   2.022902,  -9.635144,   6.418400,  -8.073887,   0.000000,   1.720626,   0.000000,  -2.902402,  -0.180983,   0.000000,   0.237384,   3.445711,  -2.588942,   1.469724,   1.649809,  -3.201173,  -3.493685,   2.837448,  -3.468518,   0.000000,   1.711915,  -0.000000,  -0.000000,  -1.409192,   0.000000,  -0.000000,  -0.000000, -10.185544,   5.352072,  -9.304922, -26.299294, -20.498728,  -0.000000,   2.311094,   2.315968, -16.719824,  -1.452710,   1.041428,  -0.000000,   0.000000,   0.000000,  -0.000000,  -0.000000,   2.451162,   1.713409, -16.535303,  12.789560,  -0.000000,   0.000000,  -2.715265,   1.624002,  -0.000000,  -0.000000,  -0.000000,   2.218696,  -4.957625,   3.889251,  -4.476660,   0.000000,   0.000000,  -0.000000,   0.000000,  -0.000000,   0.000000,  -0.000000, -12.000937,   3.884262,  -0.000000,  -1.251166,  -0.000000,  -1.581776,   0.823359,   3.715951,   0.000000,   0.433496,  21.607910, -14.834660,   1.682651,   0.000000,   0.000000,   0.840332,  -0.000000,  -4.765987,   4.086360,   0.000000,  -8.239277,  -0.000000,  -0.000000,   0.000000,  -0.000000,   8.840651,   4.564366,  -5.905518,  -2.466071,  -1.662213,   0.000000,   5.800992,  -1.758045,   0.000000,   0.000000,  -0.000000,   0.000000,  -0.000000,  -0.773623,  -0.000000,  21.936918, -13.697054,  -0.000000,  -3.275021,   0.000000,   0.074558,  -0.000000,  -0.000000,   0.000000,  -3.259538,  -4.612606,  -1.932918,   2.521776,   2.429559,   2.909546,  -9.318198,  -0.000000,  -0.621383,  -0.000000,   0.000000,   0.000000,  -0.000000,  -0.000000,  -0.000000,  -0.000000,   0.000000,  -0.000000,  -0.000000,  -0.000000,   0.000000,  -0.000000,  -0.000000,  -0.000000,  -3.330612,   0.000000,   0.820893,  -0.000000,  -0.000000};
#endif

#endif
