//Numpy array shape [3, 32]
//Min -1.000000000000
//Max 0.996314048767
//Number of zeros 48

#ifndef W19_H_
#define W19_H_

#ifndef __SYNTHESIS__
phi1_weight_t w19[96];
#else
phi1_weight_t w19[96] = {0.992188, 0.000000, 0.000000, -0.992188, -1.000000, 0.000000, 0.000000, -1.000000, 0.000000, 0.000000, 0.000000, 0.000000, 0.000000, 0.000000, 0.000000, 0.000000, 0.406250, 0.000000, 0.000000, 0.992188, 0.000000, 0.828125, 0.000000, 0.000000, 0.000000, 0.000000, 0.648438, -1.000000, 0.000000, -1.000000, 0.226562, -0.992188, 0.750000, -0.765625, 0.000000, 0.000000, 0.000000, 0.585938, -0.570312, 0.437500, 0.828125, 0.000000, 0.000000, -0.812500, 0.625000, 0.828125, 0.625000, 0.695312, 0.000000, -0.703125, -0.960938, 0.000000, 0.000000, -0.687500, -0.984375, 0.992188, -0.687500, 0.000000, 0.000000, -0.140625, 0.000000, 0.000000, 0.000000, 0.000000, 0.601562, -0.773438, 0.992188, -0.460938, 0.000000, 0.000000, -0.710938, 0.000000, 0.000000, 0.820312, -0.828125, 0.000000, 0.000000, -0.671875, 0.812500, 0.718750, -0.335938, 0.835938, 0.000000, 0.000000, 0.992188, -0.789062, 0.000000, 0.000000, 0.000000, -0.867188, 0.234375, 0.000000, -0.953125, 0.218750, 0.000000, 0.000000};
#endif

#endif
