//Numpy array shape [32, 32]
//Min -1.000000000000
//Max 1.000000000000
//Number of zeros 512

#ifndef W20_H_
#define W20_H_

#ifndef __SYNTHESIS__
phi2_weight_t w20[1024];
#else
phi2_weight_t w20[1024] = {0.000000, -0.093750, 0.000000, -0.039062, 0.000000, 0.000000, 0.625000, -0.445312, -0.523438, 0.000000, 0.000000, 0.000000, -0.296875, 0.000000, 0.000000, -0.250000, -0.148438, 0.359375, -0.632812, 0.656250, -0.023438, 0.000000, 0.000000, 0.000000, 0.000000, -0.523438, 0.593750, -0.101562, -0.218750, 0.000000, 0.000000, 0.000000, 0.000000, -0.132812, 0.000000, 0.000000, 0.000000, -0.250000, 0.148438, 0.000000, 0.132812, 0.945312, -0.960938, 0.585938, 0.398438, 0.000000, -0.546875, 0.023438, 0.000000, 0.937500, 0.000000, 0.140625, 0.437500, 0.914062, 0.054688, 0.000000, -0.812500, 0.812500, 0.000000, 0.640625, 0.000000, 0.679688, 0.375000, 0.000000, 0.984375, 0.000000, 0.734375, 0.000000, 0.000000, -0.703125, 0.000000, 0.000000, 0.000000, 0.000000, 0.000000, 0.781250, 0.000000, -0.992188, -0.546875, 0.000000, 0.960938, 0.000000, -0.562500, 0.000000, 0.000000, 0.000000, 0.437500, 0.000000, -0.992188, 0.000000, 0.000000, 0.968750, 0.000000, 0.000000, 0.000000, 0.437500, 0.000000, -0.992188, 0.000000, -1.000000, 0.000000, 0.000000, 0.000000, 0.414062, 0.500000, 0.000000, 0.000000, 0.000000, 0.000000, 0.000000, 0.000000, -0.679688, 0.000000, -0.328125, 0.000000, -0.984375, -0.531250, 0.000000, 0.000000, 0.000000, 0.195312, 0.976562, 0.437500, 0.000000, 0.000000, -0.828125, 0.023438, 0.000000, -0.546875, -0.968750, -0.828125, 0.000000, -0.695312, -0.492188, -0.992188, 0.992188, 0.984375, 0.000000, 0.000000, -0.992188, -0.328125, -0.976562, 0.000000, -1.000000, -0.960938, -0.984375, 0.000000, -0.992188, -0.976562, -1.000000, -0.960938, 0.000000, 0.085938, 0.992188, 0.585938, -0.968750, -0.976562, -1.000000, 0.000000, 0.000000, 0.546875, 0.000000, 0.593750, 0.945312, 0.882812, 0.000000, -0.031250, 0.000000, 0.023438, 0.000000, 0.000000, 0.164062, 0.000000, 0.031250, 0.000000, 0.000000, 0.523438, 0.000000, 0.000000, -0.359375, 0.000000, 0.000000, 0.000000, -0.117188, 0.000000, 0.343750, 0.000000, -0.820312, 0.195312, -0.109375, 0.000000, 0.640625, 0.648438, 0.000000, 0.304688, 0.000000, 0.968750, -0.226562, -0.554688, 0.000000, 0.000000, 0.664062, -0.453125, 0.000000, 0.000000, 0.000000, 0.000000, 0.000000, -0.164062, 0.000000, -0.437500, 0.500000, 0.000000, 0.000000, 0.281250, 0.000000, 0.000000, 0.000000, 0.101562, 0.289062, 0.000000, 0.000000, 0.000000, 0.859375, 0.000000, 0.367188, 0.000000, -0.851562, 0.000000, 0.250000, -0.593750, 0.453125, 0.796875, 0.000000, -0.562500, 0.000000, 0.000000, 0.000000, 0.000000, -0.625000, -0.789062, 0.000000, 0.000000, 0.000000, 0.000000, -0.078125, 0.640625, 0.187500, 0.421875, 0.390625, 0.945312, 0.000000, -1.000000, 0.000000, 0.046875, 0.000000, 0.335938, -0.085938, 0.507812, 0.984375, 0.000000, 0.000000, 0.000000, 0.000000, 0.000000, 0.554688, 0.375000, 0.539062, 0.234375, 0.453125, -0.679688, 0.000000, 0.398438, 0.000000, 0.000000, 0.320312, 0.000000, 0.000000, 0.000000, -0.125000, 0.000000, 0.117188, 0.000000, 0.000000, 0.468750, 0.000000, 0.000000, 0.000000, 0.187500, -0.648438, 0.000000, 0.000000, 0.000000, 0.000000, 0.750000, 0.000000, 0.000000, 0.000000, 0.000000, 0.000000, 0.000000, 0.687500, -0.210938, 0.375000, 0.054688, 0.000000, 0.000000, -0.960938, 0.476562, -0.945312, 0.992188, 0.000000, 0.070312, 0.000000, 0.617188, 0.000000, 0.000000, 0.000000, 0.000000, -0.023438, -0.203125, 0.390625, 0.359375, 0.000000, 0.000000, 0.250000, 0.062500, 0.046875, -0.460938, 0.000000, -1.000000, 0.000000, 0.000000, 0.000000, -0.421875, 0.976562, 0.000000, 0.312500, -0.453125, 0.140625, 0.578125, 0.296875, 0.000000, 0.015625, -0.968750, 0.000000, 0.507812, 0.000000, 0.523438, 0.000000, 0.898438, 0.382812, 0.000000, 0.000000, 0.000000, -0.125000, 0.570312, 0.000000, 0.000000, 0.000000, -0.226562, 0.398438, 0.398438, 0.000000, 0.000000, 0.000000, 0.000000, 0.601562, 0.757812, 0.000000, 0.257812, 0.578125, 0.000000, 0.000000, 0.921875, 0.000000, 0.796875, 0.000000, 0.000000, -0.078125, 0.148438, 0.000000, 0.546875, 0.000000, 0.578125, 0.000000, 0.578125, 0.000000, 0.328125, 0.210938, 0.000000, 0.000000, -0.890625, 0.000000, 0.093750, -0.093750, 0.000000, -0.218750, -0.398438, 0.531250, 0.000000, -0.156250, 0.000000, 0.328125, -0.234375, 0.031250, 0.000000, 0.000000, 0.000000, -0.023438, 0.953125, 0.000000, 0.289062, 0.000000, 0.000000, 0.000000, 0.484375, -0.101562, 0.000000, 0.000000, 0.000000, -0.562500, 0.179688, 0.000000, 0.000000, 0.000000, -0.976562, 0.773438, -0.414062, 0.000000, 0.000000, 0.843750, 0.000000, 0.000000, 0.156250, 0.757812, 0.000000, 0.750000, 0.773438, 0.000000, -0.882812, 0.000000, 0.000000, -1.000000, 0.679688, 0.476562, 0.000000, 0.000000, 0.000000, 0.835938, 0.000000, -0.421875, 0.000000, 0.000000, 0.000000, -0.156250, 0.000000, 0.828125, 0.000000, 0.148438, 0.000000, 0.023438, -0.585938, 0.898438, 0.000000, 0.000000, 0.179688, 0.000000, 0.000000, 0.000000, 0.000000, 0.000000, -0.382812, 0.000000, 0.000000, 0.000000, 0.968750, -0.875000, 0.289062, -0.296875, 0.000000, 0.000000, -0.062500, 0.031250, 0.000000, 0.000000, 0.773438, 0.523438, 0.234375, 0.000000, -0.945312, 0.429688, 0.000000, 0.000000, -0.484375, 0.828125, 0.531250, 0.000000, 0.000000, 0.000000, 0.351562, -0.203125, 0.000000, 0.007812, -0.765625, 0.593750, 0.000000, 0.000000, 0.000000, 0.000000, 0.257812, 0.273438, 0.000000, 0.765625, 0.000000, 0.000000, 0.000000, -0.281250, 0.000000, 0.085938, -0.398438, 0.000000, 0.000000, 0.000000, -0.492188, 0.000000, 0.000000, 0.000000, 0.000000, -0.515625, -0.648438, 0.429688, 0.460938, 0.085938, 0.000000, -0.078125, 0.000000, 0.515625, 0.000000, 0.000000, 0.242188, 0.000000, 0.000000, 0.000000, 0.601562, 0.000000, 0.195312, 0.992188, 0.593750, 0.257812, 0.562500, 0.000000, 0.000000, 0.000000, -0.976562, 0.640625, 0.000000, -1.000000, 0.226562, 0.421875, 0.000000, 0.507812, 0.000000, 0.000000, 0.578125, 0.000000, 0.000000, -0.203125, -0.984375, 0.000000, 0.585938, 0.000000, 0.390625, -0.992188, 0.875000, 0.984375, 0.609375, 0.000000, 0.054688, 0.000000, -0.984375, 0.000000, 0.000000, 0.437500, 0.000000, -0.921875, -0.976562, 0.398438, -0.289062, 0.523438, 0.000000, 0.000000, 0.976562, 0.375000, -0.296875, 0.429688, 0.781250, 0.000000, 0.000000, -0.101562, -0.984375, 0.000000, 0.554688, -0.312500, 0.914062, 0.000000, 0.000000, 0.164062, 0.000000, 0.000000, 0.000000, 0.000000, 0.000000, 0.000000, 0.000000, -1.000000, -1.000000, 0.000000, 0.000000, 0.765625, -0.304688, 0.000000, 0.218750, 0.382812, 0.000000, 0.742188, -0.476562, 0.000000, 0.734375, 0.000000, 0.000000, 0.976562, 0.593750, -1.000000, -1.000000, 0.000000, 0.515625, 0.000000, -0.976562, 0.250000, 0.000000, 0.000000, 0.000000, 0.000000, 0.000000, -0.609375, 0.000000, 0.070312, 0.015625, 0.679688, -0.867188, 0.000000, 0.000000, -1.000000, -0.335938, 0.000000, 0.000000, 0.460938, -0.359375, 0.000000, 0.000000, 0.000000, 0.000000, 0.000000, 0.000000, 0.000000, -0.476562, 0.000000, 0.000000, -0.859375, 0.000000, 0.000000, 0.460938, 0.117188, 0.000000, 0.242188, 0.117188, 0.148438, -0.312500, 0.000000, 0.000000, 0.000000, 0.000000, -0.070312, 0.000000, 0.000000, -0.359375, 0.257812, 0.000000, -0.835938, 0.000000, 0.000000, 0.000000, 0.000000, 0.000000, 0.000000, 0.000000, -0.937500, 0.000000, 0.000000, 0.000000, 0.000000, 0.000000, 0.000000, 0.000000, 0.000000, 0.000000, 0.843750, 0.046875, -0.289062, 0.000000, -0.625000, 0.000000, -0.914062, 0.000000, 0.632812, 0.000000, 0.140625, -0.375000, -0.445312, 0.000000, -0.023438, 0.000000, 0.000000, 0.000000, 0.000000, 0.000000, 0.000000, -0.671875, 0.210938, 0.000000, -0.125000, -0.054688, 0.000000, 0.000000, 0.562500, 0.984375, -0.437500, 0.000000, 0.000000, 0.000000, 0.000000, 0.000000, 0.015625, -0.085938, 0.000000, -0.937500, 0.179688, 0.000000, 0.765625, 0.289062, 0.890625, 0.500000, 0.992188, 0.000000, 0.000000, 0.984375, 0.492188, 0.000000, 0.000000, -0.968750, 0.000000, 0.000000, 0.000000, 0.000000, 0.000000, 0.796875, -0.906250, 0.906250, 0.023438, 0.000000, 0.000000, 0.500000, 0.000000, 0.984375, 0.585938, -0.648438, 0.796875, 0.000000, 0.000000, -0.304688, 0.171875, -0.421875, 0.000000, 0.023438, 0.000000, -0.515625, 0.000000, 0.000000, 0.007812, 0.585938, 0.859375, 0.000000, 0.234375, 0.000000, -0.898438, 0.000000, 0.476562, 0.000000, 0.000000, 0.304688, 0.000000, 0.000000, 0.000000, 0.000000, -0.281250, 0.000000, 0.000000, 0.000000, 0.000000, 0.000000, 0.031250, -0.210938, 0.867188, -0.203125, 0.000000, -0.945312, 0.000000, 0.000000, 0.898438, 0.414062, 0.000000, -0.875000, 0.000000, 0.992188, 0.000000, 0.000000, 0.000000, -0.164062, 0.164062, 0.000000, 0.000000, 0.468750, 0.000000, 0.000000, 0.000000, 0.960938, 0.000000, 0.000000, -0.960938, -0.906250, 0.000000, 0.468750, 0.000000, -0.398438, 0.539062, 0.000000, 0.000000, 0.804688, 0.000000, 0.000000, -0.281250, 0.000000, 0.000000, 0.000000, 0.304688, 0.000000, -0.203125, -0.382812, 0.281250, 0.679688, 0.000000, 0.000000, 0.000000, 0.000000, 0.000000, 0.000000, -0.742188, 0.585938, 0.000000, 0.000000, 0.992188, 0.523438, 0.000000, -0.507812, 0.000000, -0.554688, 0.000000, 0.000000, -1.000000, -0.968750, 0.000000, 0.000000, 0.000000, -0.953125, 0.000000, 0.023438, -0.468750, 0.000000, 0.992188, 0.570312, 0.000000, -0.968750, 0.000000, 0.000000, -1.000000, 0.531250, 0.000000, 0.085938, 0.718750, 0.000000, 0.000000, 0.859375, 0.000000, 0.179688, -0.953125, -0.546875, 0.898438, 0.000000, 0.000000, -0.375000, 0.000000, 0.000000, 0.578125, 0.164062, 0.093750, 0.000000, 0.000000, 0.000000, 0.000000, -0.898438, 0.000000, 0.351562, 0.000000, 0.242188, 0.000000, 0.078125, 0.000000, 0.000000, 0.000000, 0.000000, -0.593750, 0.000000, 0.000000, 0.000000, 0.992188, 0.914062, -0.218750, -0.828125, -0.312500, 0.000000, 0.000000, -0.203125, -0.960938, -0.960938, -0.210938, 0.000000, -0.976562, 0.000000, -0.367188, 0.000000, -0.171875, 0.000000, 0.992188, 0.804688, -0.953125, 0.000000, 0.000000, 0.000000, 0.000000, 0.000000, 0.914062, 0.968750, 0.976562, 0.000000, -0.195312, 0.992188, 0.000000, -0.632812, 0.000000, 0.578125, 0.984375, 0.000000, 0.000000, 0.000000, 0.000000, 0.000000, 0.000000, 0.281250, -0.562500, 0.710938, 0.000000, 0.000000, 0.000000, 0.132812, 0.000000, 0.546875, 0.000000, 0.203125, 0.000000, 0.000000, 0.000000, -1.000000, -1.000000, 0.976562, -1.000000, 0.000000, -0.328125, -1.000000, 0.992188, 0.000000, -0.992188, -0.304688, -1.000000, 0.421875, 0.000000, -0.351562, 0.000000, 0.000000, -0.984375, 0.226562, -1.000000, 0.000000, -1.000000, 0.000000, 0.070312, 0.000000, 0.992188, 0.992188, 0.000000, -0.984375, -1.000000, -0.140625, -0.992188};
#endif

#endif
