//Numpy array shape [32, 5]
//Min -4.937841892242
//Max 2.957286834717
//Number of zeros 0

#ifndef W16_H_
#define W16_H_

#ifndef __SYNTHESIS__
dense_weight_t w16[160];
#else
dense_weight_t w16[160] = { -0.165423,   0.144973,  -0.273851,   0.143035,   0.032588,   0.952635,   1.059891,  -1.737974,  -1.425443,   0.558842,   0.427452,   0.412533,  -2.546747,   1.675293,   0.018253,   0.759091,  -0.985493,   0.085334,   0.095390,   0.222917,   0.655595,   0.763749,   2.007240,  -3.895189,   0.903166,   0.455580,   0.488542,  -4.368164,  -0.622564,   0.598002,   0.645807,   0.276296,  -0.401376,  -0.600591,  -1.129243,  -0.083352,   0.577114,   0.719714,   0.439386,  -1.179872,  -0.201522,  -0.237080,   0.936629,  -0.632655,   0.045553,  -0.642524,  -0.805137,  -0.062485,   1.290417,  -0.726132,   0.605671,   0.838282,  -0.538960,   1.093724,  -1.797753,   0.453658,  -0.301388,  -1.345992,  -1.225649,   0.788491,  -0.532343,   0.427520,  -0.170642,   0.038007,   0.886131,   1.275030,  -0.817344,  -0.429030,  -0.078686,  -0.696745,  -1.203171,  -0.725097,   1.328189,   0.121994,  -0.083160,  -0.150690,  -0.266086,   0.011878,  -0.291559,  -0.526723,   2.661284,  -1.196590,  -1.697966,  -0.846672,  -0.218003,  -0.323057,  -0.668741,   0.214286,  -0.128277,   0.810029,  -0.335165,  -0.845466,   0.054708,   1.093839,  -0.008739,  -1.009455,  -0.677359,   0.663713,  -0.120149,  -0.165415,   0.515920,   1.113382,  -0.935906,  -1.795186,   0.504176,   0.289023,   0.644184,  -1.251229,   0.248051,  -1.003716,  -0.791675,   0.293892,   0.737411,   0.518185,  -0.572185,  -0.630360,  -1.085171,   0.919615,  -0.173191,   0.107332,   0.854431,   0.747359,  -0.764042,  -0.174228,  -0.737413,   1.040670,   1.304323,  -4.831365,  -0.862415,   0.493279,   0.165905,   0.077002,   0.060948,  -4.937842,   0.666837,  -0.430377,   0.385483,   0.803219,   0.582876,  -1.289671,  -0.270863,   0.114902,   2.957287,   2.675554,  -2.173288,  -0.638099,  -0.623510,   1.811236,   0.656319,   0.297330,   0.505617,   0.848736,  -3.582366,  -0.374836,   0.540990,   0.205821,   0.057021,  -1.067369,  -0.584680,  -1.261853};
#endif

#endif
