//Numpy array shape [3, 32]
//Min -1.000000000000
//Max 1.000000000000
//Number of zeros 0

#ifndef W19_H_
#define W19_H_

#ifndef __SYNTHESIS__
phi1_weight_t w19[96];
#else
phi1_weight_t w19[96] = {0.375000, 0.000000, 0.500000, 0.250000, 0.000000, 0.875000, -1.000000, -0.750000, 0.250000, 0.375000, 0.625000, 0.625000, -0.125000, 0.000000, 0.500000, 0.375000, -1.000000, 0.125000, 0.875000, 0.500000, 0.000000, 0.750000, 0.500000, -1.000000, -1.000000, 0.000000, -0.250000, 0.875000, 0.875000, -0.125000, -1.000000, 0.000000, -1.000000, 0.875000, -1.000000, 0.875000, -1.000000, -0.875000, -1.000000, -1.000000, 0.875000, 0.875000, 0.875000, -1.000000, 0.875000, 0.875000, 0.875000, -1.000000, 0.250000, 0.875000, 0.875000, 0.875000, -1.000000, -1.000000, -0.875000, 0.000000, 0.000000, -1.000000, 0.000000, 0.875000, -0.500000, 0.000000, 0.125000, -0.125000, 0.875000, 0.875000, 0.875000, -1.000000, -1.000000, 0.875000, 0.875000, -1.000000, -1.000000, 0.125000, 0.875000, -0.875000, 0.875000, 0.875000, 0.875000, 0.875000, -0.125000, -1.000000, 0.875000, -0.500000, -0.125000, -1.000000, -1.000000, 0.125000, 0.125000, -1.000000, 0.000000, -1.000000, 0.250000, 0.875000, -0.250000, -1.000000};
#endif

#endif
