//Numpy array shape [32, 32]
//Min -1.000000000000
//Max 0.999942898750
//Number of zeros 0

#ifndef W21_H_
#define W21_H_

#ifndef __SYNTHESIS__
phi3_weight_t w21[1024];
#else
phi3_weight_t w21[1024] = {-0.375000, 0.750000, -0.875000, 0.000000, 0.375000, 0.250000, 0.500000, 0.000000, -0.875000, 0.125000, 0.125000, 0.250000, 0.875000, -0.125000, 0.875000, 0.125000, -0.750000, -0.750000, 0.375000, -1.000000, -0.875000, -0.375000, 0.250000, -0.250000, -0.875000, 0.375000, 0.750000, -0.375000, -1.000000, 0.375000, -0.125000, 0.875000, 0.375000, -1.000000, -0.250000, -1.000000, -1.000000, -0.875000, 0.125000, -0.125000, -1.000000, -0.250000, -0.500000, 0.750000, -1.000000, 0.750000, -0.750000, -1.000000, -0.875000, -0.875000, -1.000000, -0.250000, -1.000000, -0.375000, -0.125000, -1.000000, -1.000000, -0.500000, -0.750000, -1.000000, 0.375000, -0.125000, -0.125000, 0.875000, 0.125000, -0.375000, -0.125000, 0.250000, -0.375000, 0.125000, -0.375000, 0.000000, -0.125000, 0.125000, 0.125000, -0.125000, 0.125000, -0.375000, 0.250000, -0.375000, 0.000000, -0.375000, 0.125000, -0.250000, 0.125000, -0.250000, 0.000000, 0.250000, 0.000000, 0.000000, 0.250000, 0.250000, -0.500000, 0.125000, 0.000000, -0.125000, -0.250000, -0.625000, -0.125000, -0.750000, -0.875000, -0.625000, -0.375000, -1.000000, -0.625000, 0.500000, -0.500000, 0.750000, -1.000000, 0.625000, -0.125000, -0.375000, -0.875000, -0.875000, -1.000000, -0.125000, -0.875000, -0.875000, -0.625000, -0.375000, -0.750000, 0.125000, -0.875000, 0.125000, 0.625000, -0.750000, -0.250000, 0.500000, 0.500000, 0.500000, 0.125000, -0.250000, 0.250000, 0.000000, 0.000000, -0.125000, 0.000000, 0.000000, -0.125000, 0.250000, -0.125000, 0.250000, 0.250000, 0.125000, -0.375000, -0.500000, 0.000000, 0.000000, 0.125000, 0.000000, 0.125000, -0.250000, 0.250000, 0.125000, 0.000000, 0.000000, 0.000000, -0.125000, 0.250000, -0.125000, 0.000000, -0.125000, -0.250000, 0.375000, -0.750000, -0.375000, -0.625000, 0.500000, -1.000000, -0.250000, -0.125000, -1.000000, -0.625000, -0.625000, -0.625000, -1.000000, -1.000000, 0.125000, 0.125000, 0.125000, -1.000000, 0.375000, -0.750000, -1.000000, -0.125000, -0.250000, -0.375000, -0.875000, 0.250000, -0.375000, 0.500000, -0.625000, -0.500000, 0.250000, 0.250000, 0.750000, -0.500000, -0.250000, -1.000000, -0.375000, 0.375000, -0.500000, 0.000000, -0.875000, -0.250000, -1.000000, -0.625000, 0.250000, 0.125000, 0.500000, -0.125000, 0.500000, 0.125000, 0.125000, -0.125000, 0.000000, 0.250000, -0.125000, -0.125000, 0.500000, -0.125000, -0.625000, 0.500000, 0.375000, 0.375000, 0.500000, -1.000000, -0.125000, 0.125000, 0.000000, 0.125000, 0.375000, 0.625000, 0.250000, 0.375000, 0.250000, 0.250000, -0.125000, 0.500000, -1.000000, 0.000000, -0.375000, -0.875000, -1.000000, -1.000000, 0.250000, 0.250000, -0.625000, -0.125000, -0.125000, 0.000000, 0.125000, 0.000000, 0.500000, 0.500000, 0.000000, 0.875000, 0.250000, -0.625000, 0.250000, -0.250000, -0.250000, -0.125000, 0.625000, 0.750000, -0.250000, 0.750000, 0.875000, 0.375000, 0.625000, 0.125000, 0.875000, 0.875000, 0.375000, 0.750000, -0.375000, 0.000000, 0.375000, 0.500000, 0.875000, -0.125000, 0.000000, 0.125000, 0.500000, 0.125000, 0.625000, 0.500000, -0.250000, 0.125000, 0.125000, 0.375000, 0.250000, 0.000000, 0.375000, 0.250000, -0.250000, 0.750000, 0.375000, -0.375000, 0.000000, 0.250000, -0.375000, -0.125000, 0.625000, 0.750000, 0.250000, 0.375000, -0.500000, 0.750000, 0.250000, 0.750000, 0.875000, 0.250000, -0.125000, 0.375000, 0.375000, -0.250000, -0.875000, 0.000000, 0.750000, 0.250000, 0.250000, -0.625000, -0.750000, -1.000000, -0.375000, 0.250000, 0.500000, -0.500000, -0.625000, 0.500000, 0.875000, -0.250000, 0.750000, -0.125000, -0.500000, -1.000000, 0.000000, -0.375000, 0.500000, 0.125000, 0.250000, 0.750000, -0.750000, -0.875000, -0.375000, -1.000000, -0.250000, -0.500000, 0.250000, -0.125000, 0.125000, -0.500000, 0.375000, 0.000000, 0.000000, 0.500000, 0.875000, 0.500000, 0.000000, 0.000000, -0.500000, 0.125000, 0.125000, 0.375000, -0.125000, 0.625000, -0.375000, 0.000000, -0.875000, 0.000000, -0.250000, 0.625000, -0.125000, 0.125000, -0.250000, 0.250000, -0.125000, 0.625000, 0.750000, -0.250000, 0.500000, -0.375000, -0.375000, 0.000000, 0.250000, 0.000000, -0.250000, -0.375000, 0.250000, 0.375000, -0.250000, 0.000000, 0.250000, 0.000000, -0.250000, 0.125000, 0.000000, 0.000000, -0.125000, 0.375000, 0.250000, -0.250000, 0.250000, 0.125000, -0.250000, 0.250000, 0.125000, 0.125000, 0.125000, -0.125000, -0.125000, 0.000000, -0.375000, 0.375000, 0.000000, -0.625000, -0.875000, -0.750000, 0.875000, -0.125000, -0.250000, -0.125000, -1.000000, 0.000000, 0.375000, -0.250000, 0.000000, -0.875000, -1.000000, -0.375000, -1.000000, 0.500000, 0.750000, 0.250000, -0.375000, 0.125000, -0.125000, -0.250000, -0.375000, -0.500000, 0.000000, -0.375000, 0.250000, -0.500000, -1.000000, 0.375000, -0.750000, 0.375000, 0.750000, -0.500000, -0.125000, 0.500000, -0.125000, 0.375000, 0.125000, 0.125000, -0.875000, 0.750000, 0.000000, 0.875000, 0.250000, 0.875000, 0.125000, -1.000000, -0.750000, 0.000000, -0.250000, 0.250000, 0.500000, 0.375000, -0.250000, 0.500000, -0.375000, -0.250000, -0.250000, -0.375000, 0.500000, 0.000000, 0.250000, 0.250000, -0.250000, -0.625000, -0.250000, -0.125000, -1.000000, -0.875000, -0.375000, -0.625000, -0.625000, -0.500000, 0.250000, -1.000000, 0.250000, -1.000000, -0.125000, -1.000000, -0.875000, -0.875000, 0.250000, -0.875000, -0.125000, -0.500000, 0.125000, -0.375000, 0.000000, -0.875000, 0.125000, 0.500000, -0.250000, 0.625000, 0.250000, 0.250000, 0.875000, 0.000000, -0.500000, 0.125000, -0.625000, 0.625000, 0.625000, 0.000000, -1.000000, 0.875000, 0.375000, 0.875000, 0.000000, 0.125000, 0.875000, -0.875000, -0.250000, 0.750000, 0.875000, 0.250000, 0.875000, 0.250000, 0.625000, 0.500000, -0.250000, -0.750000, 0.625000, 0.000000, 0.750000, 0.500000, 0.875000, 0.375000, 0.000000, 0.375000, 0.000000, 0.500000, 0.125000, 0.375000, 0.125000, 0.625000, -0.500000, 0.250000, 0.125000, 0.000000, 0.000000, 0.500000, -0.500000, -0.250000, -0.500000, 0.875000, 0.250000, -0.750000, 0.625000, 0.125000, -0.125000, 0.000000, -0.125000, -0.125000, -0.125000, 0.000000, 0.375000, -1.000000, -0.375000, 0.250000, 0.125000, 0.250000, -0.125000, 0.250000, 0.250000, 0.000000, 0.250000, 0.125000, 0.125000, 0.250000, 0.000000, 0.125000, 0.125000, 0.375000, 0.125000, -0.125000, -0.375000, 0.625000, -0.250000, -0.250000, 0.375000, 0.125000, -0.250000, 0.000000, -0.250000, 0.000000, 0.000000, -0.125000, 0.250000, -1.000000, -0.625000, -0.250000, -0.250000, -0.625000, -0.250000, 0.000000, 0.625000, -0.125000, -0.250000, 0.125000, 0.625000, -0.250000, 0.000000, -0.375000, -0.250000, 0.250000, 0.125000, 0.250000, -0.250000, 0.000000, -1.000000, -0.125000, -0.250000, -0.250000, 0.000000, -0.125000, -0.500000, 0.125000, -0.250000, -0.500000, -0.375000, -0.875000, 0.000000, 0.875000, 0.250000, 0.000000, -1.000000, 0.500000, -0.375000, 0.500000, 0.875000, 0.250000, 0.625000, 0.000000, 0.875000, 0.125000, 0.875000, 0.500000, 0.250000, 0.375000, 0.875000, 0.250000, 0.625000, -0.125000, 0.625000, 0.750000, 0.875000, 0.375000, 0.125000, 0.500000, 0.500000, 0.625000, 0.625000, 0.250000, 0.375000, 0.375000, 0.875000, -0.625000, -0.250000, 0.500000, -0.250000, 0.500000, 0.250000, 0.250000, -0.500000, 0.875000, -0.250000, 0.750000, 0.000000, 0.750000, 0.375000, -1.000000, -0.875000, 0.000000, -0.250000, 0.000000, 0.250000, 0.500000, -0.125000, 0.250000, -0.125000, -0.250000, -0.500000, -0.875000, 0.500000, 0.125000, 0.375000, 0.125000, 0.000000, 0.375000, 0.125000, 0.250000, 0.000000, 0.500000, 0.000000, 0.500000, -0.625000, 0.125000, 0.000000, 0.000000, 0.000000, 0.625000, -0.375000, -0.375000, -0.625000, 0.500000, 0.250000, -0.375000, 0.625000, 0.125000, -0.125000, 0.000000, -0.125000, 0.000000, 0.125000, 0.000000, 0.250000, -1.000000, -0.500000, -0.750000, -0.125000, -0.250000, 0.250000, -0.750000, -0.875000, -0.875000, 0.250000, -0.125000, -0.375000, 0.250000, -1.000000, 0.500000, 0.125000, -1.000000, -0.125000, 0.000000, 0.625000, -0.625000, 0.500000, 0.375000, -0.250000, -1.000000, 0.125000, 0.000000, 0.250000, -0.375000, 0.000000, 0.125000, 0.000000, 0.375000, 0.125000, -0.250000, 0.500000, 0.625000, -0.250000, 0.000000, -0.125000, 0.375000, 0.125000, -0.500000, -0.875000, 0.875000, 0.125000, 0.125000, 0.000000, 0.000000, -1.000000, -1.000000, -0.625000, 0.000000, -0.250000, -0.125000, 0.000000, -0.375000, -0.875000, 0.500000, -0.125000, -1.000000, -0.500000, -1.000000, 0.125000, -0.625000, 0.375000, 0.750000, 0.500000, 0.750000, 0.875000, 0.375000, 0.875000, -0.375000, -1.000000, 0.875000, 0.875000, -0.375000, -1.000000, -1.000000, -0.250000, -0.875000, 0.375000, 0.375000, 0.000000, 0.125000, 0.875000, 0.500000, -0.375000, 0.625000, 0.500000, 0.750000, 0.000000, 0.750000, 0.875000, 0.875000, -1.000000, 0.750000, -0.375000, -0.250000, 0.500000, 0.250000, -1.000000, 0.125000, -0.250000, 0.500000, 0.125000, -1.000000, -0.125000, 0.250000, 0.500000, 0.250000, 0.250000, 0.750000, -0.625000, -1.000000, -1.000000, -0.875000, -0.375000, -0.625000, 0.250000, 0.250000, 0.000000, -0.500000, -0.375000, -1.000000, -0.750000, -0.750000, 0.125000, -1.000000, 0.375000, -0.250000, 0.125000, 0.125000, -0.125000, -0.125000, -0.250000, -0.500000, 0.250000, -0.125000, -0.250000, -0.250000, -0.500000, 0.125000, 0.125000, 0.625000, -0.125000, -0.125000, 0.000000, -0.125000, 0.000000, 0.250000, 0.125000, -0.500000, 0.500000, 0.250000, -0.250000, 0.000000, 0.375000, 0.000000, -0.125000, 0.000000, 0.000000, 0.375000, -0.250000, -1.000000, 0.250000, 0.625000, 0.375000, 0.125000, 0.625000, 0.250000, 0.875000, 0.125000, 0.250000, 0.875000, -0.625000, 0.000000, 0.250000, 0.875000, 0.000000, -0.250000, -1.000000, -0.125000, -0.125000, 0.375000, 0.125000, -0.375000, -0.125000, 0.125000, 0.000000, -0.125000, 0.000000, -0.250000, -0.125000, 0.250000, 0.125000, -0.875000, 0.125000, -0.250000, -0.625000, 0.750000, 0.125000, -0.125000, -1.000000, 0.250000, 0.375000, 0.375000, 0.000000, -0.375000, 0.500000, 0.750000, 0.625000, -0.375000, -1.000000, -0.125000, 0.875000, 0.750000, 0.500000, -1.000000, 0.125000, -1.000000, 0.375000, 0.875000, 0.500000, 0.875000, 0.000000, 0.500000, 0.375000, -0.625000, -0.625000, 0.625000, 0.000000, 0.625000, 0.500000, 0.000000, -0.625000, 0.750000, 0.125000, 0.250000, -0.125000, -0.375000, -0.125000, -0.250000, -0.500000, 0.375000, -0.750000, -0.750000, 0.375000, 0.750000, -0.125000, -0.125000, 0.125000, 0.250000, 0.000000, -0.875000, 0.875000, 0.125000, -0.250000, -0.125000, 0.000000, 0.875000, -0.250000, -0.125000, -0.125000, -0.125000, 0.125000, 0.250000, -1.000000, 0.750000, -0.250000, -0.375000, -0.375000, 0.125000, 0.125000, -0.125000, -0.250000, -0.375000, 0.625000, 0.250000, -0.125000, -0.375000, -0.250000, 0.375000, 0.000000, -0.250000, -0.250000, -0.625000, -0.125000, -0.875000, 0.250000};
#endif

#endif
