//Numpy array shape [3, 32]
//Min -0.996739625931
//Max 0.999986112118
//Number of zeros 0

#ifndef W19_H_
#define W19_H_

#ifndef __SYNTHESIS__
phi1_weight_t w19[96];
#else
phi1_weight_t w19[96] = {0.906250, 0.968750, 0.000000, 0.093750, 0.093750, 0.437500, -0.968750, 0.593750, -1.000000, -1.000000, 0.000000, -1.000000, 0.281250, 0.000000, 0.312500, 0.062500, 0.062500, 0.312500, -1.000000, -1.000000, 0.125000, 0.031250, 0.312500, 0.531250, 0.156250, 0.031250, 0.062500, -0.281250, 0.593750, 0.000000, 0.125000, 0.312500, 0.187500, 0.031250, 0.968750, -0.968750, 0.968750, 0.750000, 0.500000, -0.468750, -0.656250, -0.625000, 0.968750, -0.187500, 0.968750, -1.000000, -0.812500, 0.656250, -1.000000, -1.000000, 0.000000, -0.062500, -0.750000, -0.718750, 0.906250, -0.468750, -1.000000, 0.500000, -1.000000, 0.562500, -0.437500, -0.312500, 0.000000, 0.531250, -0.281250, 0.000000, 0.968750, -0.562500, -1.000000, 0.375000, -0.375000, 0.562500, -0.250000, 0.531250, 0.093750, 0.218750, -1.000000, 0.406250, 0.312500, 0.968750, 0.593750, 0.968750, 0.031250, -0.031250, 0.968750, -1.000000, -0.593750, -0.906250, -1.000000, -1.000000, -0.125000, 0.875000, -1.000000, -1.000000, 0.968750, 0.968750};
#endif

#endif
