//Numpy array shape [32, 5]
//Min -14.411236763000
//Max 14.582573890686
//Number of zeros 0

#ifndef W16_H_
#define W16_H_

#ifndef __SYNTHESIS__
dense_weight_t w16[160];
#else
dense_weight_t w16[160] = { -0.259403,   0.127272,   0.320506,   0.343754,   0.054181,   2.229035,   1.418929,  -2.867924,  -1.907191,   0.831086,  -1.249662,  -0.238338,  14.582574,  -9.284607,   1.486624,  -1.818091,  -1.657067,   0.635997,  -0.350719,   4.085586,   1.573246,   1.824733, -14.411237,   2.931541,   1.164292,   5.045363,   2.683704, -10.116384, -11.424761,  -1.362023,   2.003195,   0.644428,   0.068905,  -0.095680,  -2.670656,   3.718839,  -0.066212,  -5.809489,   3.523726,  -2.870869,  -1.868419,  -2.481933,   2.523714,  -1.830395,   2.118687,  -0.383259,  -0.325518,  -0.342202,  -0.327828,   0.116066,  -0.229609,   0.224429,   0.088460,   0.200100,  -0.277703,  -1.576588,  -2.071471,   3.443365,  11.207407,  -1.668899,   2.385334,   1.704504,  -6.158591,  -0.943308,  -0.242404,   0.280300,   0.072496,   0.008162,   0.104771,  -0.060936,   0.262642,  -0.025075,  -0.064754,  -0.084931,   0.316693,  -0.173746,   0.095533,  -0.419130,   0.271877,  -0.284864,  -0.878182,  -1.462389,  -0.444896,   1.014560,   1.242051,  -2.667180,   1.088408,   3.460154,   1.209477,  -3.708637,  -1.456031,  -0.175934,   4.132389,  -2.912905,   1.599898,   1.550276,   1.655718,   1.620227,   2.718543,  -3.321558,   4.099043,   1.232512,  -3.691051,  -0.479841,  -3.614525,  -0.140555,   0.204341,   0.169144,   0.198030,  -0.545946,  -2.805126,   1.234037,   0.273890,   0.275301,   2.208959,  -0.031459,   0.373470,   0.272390,   0.010098,   0.190136,  -2.964805,  -1.011072,   3.348399,   2.296515,  -0.954036,   0.047247,   0.291216,  -0.034450,   0.168436,  -0.267467,  -0.282247,  -1.583193,   1.966626,  -2.566481,   2.062747,   7.385666,  -1.598980,  -4.894793,  -2.898145,   0.117228,   0.575997,   1.132504,   6.238375, -13.368431,   1.141138,   1.616983,   0.951479, -13.278083,   4.079854,  -0.404869,  -0.305401,  -0.136963,  -0.115476,  -0.128130,  -0.360451,   0.023485,  -1.374217,  -0.193837,   5.008430,  -3.194762};
#endif

#endif
