//Numpy array shape [3, 32]
//Min -0.999620497227
//Max 0.998952805996
//Number of zeros 0

#ifndef W19_H_
#define W19_H_

#ifndef __SYNTHESIS__
phi1_weight_t w19[96];
#else
phi1_weight_t w19[96] = {-1.000000, 0.281250, 0.000000, 0.101562, -0.945312, 0.117188, 0.320312, -1.000000, -0.984375, 0.023438, 0.390625, 0.109375, 0.171875, -0.875000, 0.007812, 0.164062, 0.007812, -1.000000, -1.000000, 0.054688, -0.992188, 0.109375, 0.210938, 0.101562, 0.062500, 0.000000, 0.078125, 0.445312, 0.656250, 0.000000, -1.000000, 0.648438, -0.054688, -0.742188, -1.000000, -0.726562, -0.125000, 0.906250, -0.312500, -0.015625, -0.781250, 0.226562, 0.437500, -0.164062, -0.984375, -0.500000, -0.296875, 0.484375, -1.000000, 0.171875, -0.296875, -0.507812, 0.453125, -0.578125, 0.500000, -0.968750, 0.992188, 0.687500, 0.492188, -0.523438, 0.304688, 0.992188, 0.164062, 0.031250, 0.046875, -1.000000, 0.179688, 0.640625, -0.523438, 0.312500, 0.070312, 0.023438, 0.601562, 0.992188, -0.664062, 0.968750, -0.101562, 0.335938, -1.000000, 0.992188, 0.656250, -0.054688, -0.265625, -0.992188, 0.781250, 0.992188, 0.992188, -0.265625, 0.140625, -1.000000, -0.898438, -0.953125, -0.328125, 0.171875, -0.078125, 0.265625};
#endif

#endif
